[[ 0.5634257  -0.22212285  0.3061877   0.2350101   0.50469583 -0.25331658
  -0.34313145  0.2083633  -0.9976464  -0.0758951   0.48394027 -0.9024278
   0.7648149  -0.91803116  0.80175585  0.9198434 ]]
[[-0.39876494  0.29010147 -0.72676337 -0.04824924  0.2174573   0.06440576
  -0.00922876  0.16535269 -0.19004306 -0.36634672  0.46865994  0.25702757
  -0.34538963  0.2767502   0.13153876 -0.20554365]
 [-0.34396827 -0.10778328 -0.5859692  -0.09803367  0.03231907 -0.19621107
  -0.13581662 -0.34241238  0.33362895 -0.26469564 -0.16979864  0.07975511
   0.24279913  0.12049153 -0.01904552  0.15653387]
 [-0.25612763 -0.55529183  0.2647302  -0.00105133 -0.7010724  -0.37956977
  -0.41275913 -0.17531218  0.01836484  0.07823774 -0.3394153   0.43405414
   0.0825347  -0.72871065  0.14908434  0.00889669]
 [-0.11611168  0.31198886 -0.24110563  0.44054472 -0.03400552  0.06085922
   0.48937634  0.38997266  0.44331306 -0.29634827  0.22196963  0.38669828
  -0.06845342  0.26323715  0.00470802  0.50880563]]
[ 0.30924302 -0.35304967  0.39784175  0.26501167  0.24442312  0.14837784
  0.14028227  0.23968871 -0.04667393 -0.02137598 -0.0011717  -0.01940335
  0.27104986 -0.34808612  0.36755052  0.22823814]
[[-0.31409177]
 [-0.09003549]
 [ 0.5680161 ]
 [-1.2358952 ]]
[0.00141997]
